digraph Tree {
node [shape=box] ;
0 [label="satisfaction_level <= 0.465\ngini = 0.3635\nsamples = 11999\nvalue = [9134, 2865]"] ;
1 [label="number_project <= 2.5\ngini = 0.4767\nsamples = 3354\nvalue = [1315, 2039]"] ;
0 -> 1 [labeldistance=2.5, labelangle=45, headlabel="True"] ;
2 [label="last_evaluation <= 0.575\ngini = 0.2169\nsamples = 1390\nvalue = [172, 1218]"] ;
1 -> 2 ;
3 [label="gini = 0.1019\nsamples = 1282\nvalue = [69, 1213]"] ;
2 -> 3 ;
4 [label="gini = 0.0883\nsamples = 108\nvalue = [103, 5]"] ;
2 -> 4 ;
5 [label="satisfaction_level <= 0.115\ngini = 0.4866\nsamples = 1964\nvalue = [1143, 821]"] ;
1 -> 5 ;
6 [label="gini = 0.0\nsamples = 728\nvalue = [0, 728]"] ;
5 -> 6 ;
7 [label="gini = 0.1392\nsamples = 1236\nvalue = [1143, 93]"] ;
5 -> 7 ;
8 [label="time_spend_company <= 4.5\ngini = 0.1728\nsamples = 8645\nvalue = [7819, 826]"] ;
0 -> 8 [labeldistance=2.5, labelangle=-45, headlabel="False"] ;
9 [label="average_montly_hours <= 290.5\ngini = 0.0285\nsamples = 7053\nvalue = [6951, 102]"] ;
8 -> 9 ;
10 [label="gini = 0.0274\nsamples = 7049\nvalue = [6951, 98]"] ;
9 -> 10 ;
11 [label="gini = 0.0\nsamples = 4\nvalue = [0, 4]"] ;
9 -> 11 ;
12 [label="last_evaluation <= 0.805\ngini = 0.4959\nsamples = 1592\nvalue = [868, 724]"] ;
8 -> 12 ;
13 [label="gini = 0.0726\nsamples = 610\nvalue = [587, 23]"] ;
12 -> 13 ;
14 [label="gini = 0.4085\nsamples = 982\nvalue = [281, 701]"] ;
12 -> 14 ;
}